digraph Tree {
node [shape=box] ;
0 [label="student=no <= 0.5\nentropy = 0.863\nsamples = 14\nvalue = [4, 10]"] ;
1 [label="entropy = 0.0\nsamples = 6\nvalue = [0, 6]"] ;
0 -> 1 [labeldistance=2.5, labelangle=45, headlabel="True"] ;
2 [label="age=youth <= 0.5\nentropy = 1.0\nsamples = 8\nvalue = [4, 4]"] ;
0 -> 2 [labeldistance=2.5, labelangle=-45, headlabel="False"] ;
3 [label="credit_rating=fair <= 0.5\nentropy = 0.722\nsamples = 5\nvalue = [1, 4]"] ;
2 -> 3 ;
4 [label="age=middle_age <= 0.5\nentropy = 1.0\nsamples = 2\nvalue = [1, 1]"] ;
3 -> 4 ;
5 [label="entropy = 0.0\nsamples = 1\nvalue = [1, 0]"] ;
4 -> 5 ;
6 [label="entropy = 0.0\nsamples = 1\nvalue = [0, 1]"] ;
4 -> 6 ;
7 [label="entropy = 0.0\nsamples = 3\nvalue = [0, 3]"] ;
3 -> 7 ;
8 [label="entropy = 0.0\nsamples = 3\nvalue = [3, 0]"] ;
2 -> 8 ;
}